digraph Tree {
node [shape=box, style="filled", color="black", fontname="helvetica"] ;
edge [fontname="helvetica"] ;
0 [label="OverallQual <= 6.5\nfriedman_mse = 8255548409.492\nsamples = 645\nvalue = 185118.86", fillcolor="#fae8db"] ;
1 [label="GrLivArea <= 0.206\nfriedman_mse = 2503654087.182\nsamples = 544\nvalue = 159141.999", fillcolor="#fbede3"] ;
0 -> 1 [labeldistance=2.5, labelangle=45, headlabel="True"] ;
2 [label="TotalBsmtSF <= 0.166\nfriedman_mse = 1101785685.396\nsamples = 282\nvalue = 130209.772", fillcolor="#fcf2eb"] ;
1 -> 2 ;
3 [label="GarageArea <= 0.16\nfriedman_mse = 768527619.872\nsamples = 187\nvalue = 117053.343", fillcolor="#fdf5ef"] ;
2 -> 3 ;
4 [label="OverallQual <= 2.5\nfriedman_mse = 459812340.971\nsamples = 45\nvalue = 93155.696", fillcolor="#fef9f5"] ;
3 -> 4 ;
5 [label="friedman_mse = 300215555.556\nsamples = 5\nvalue = 59233.333", fillcolor="#ffffff"] ;
4 -> 5 ;
6 [label="friedman_mse = 313359134.694\nsamples = 40\nvalue = 97517.143", fillcolor="#fef8f4"] ;
4 -> 6 ;
7 [label="YearBuilt <= 0.75\nfriedman_mse = 601758888.571\nsamples = 142\nvalue = 125595.941", fillcolor="#fdf3ec"] ;
3 -> 7 ;
8 [label="friedman_mse = 514390871.653\nsamples = 111\nvalue = 119149.925", fillcolor="#fdf4ee"] ;
7 -> 8 ;
9 [label="friedman_mse = 227140744.665\nsamples = 31\nvalue = 148828.458", fillcolor="#fcefe6"] ;
7 -> 9 ;
10 [label="YearBuilt <= 0.79\nfriedman_mse = 736770825.571\nsamples = 95\nvalue = 156348.371", fillcolor="#fbede3"] ;
2 -> 10 ;
11 [label="LotArea <= 0.034\nfriedman_mse = 356947309.748\nsamples = 61\nvalue = 144934.584", fillcolor="#fcefe7"] ;
10 -> 11 ;
12 [label="friedman_mse = 263150696.0\nsamples = 15\nvalue = 128298.0", fillcolor="#fcf2eb"] ;
11 -> 12 ;
13 [label="friedman_mse = 266807825.097\nsamples = 46\nvalue = 150407.145", fillcolor="#fceee5"] ;
11 -> 13 ;
14 [label="GrLivArea <= 0.159\nfriedman_mse = 709287603.692\nsamples = 34\nvalue = 179404.22", fillcolor="#fbe9dd"] ;
10 -> 14 ;
15 [label="friedman_mse = 404466942.149\nsamples = 8\nvalue = 144818.182", fillcolor="#fcf0e7"] ;
14 -> 15 ;
16 [label="friedman_mse = 362713864.96\nsamples = 26\nvalue = 189159.256", fillcolor="#fae7da"] ;
14 -> 16 ;
17 [label="GarageArea <= 0.271\nfriedman_mse = 2098133711.419\nsamples = 262\nvalue = 191281.0", fillcolor="#fae7d9"] ;
1 -> 17 ;
18 [label="BsmtFinSF1 <= 0.041\nfriedman_mse = 770154324.15\nsamples = 51\nvalue = 146906.512", fillcolor="#fcefe6"] ;
17 -> 18 ;
19 [label="1stFlrSF <= 0.143\nfriedman_mse = 409503251.204\nsamples = 32\nvalue = 133818.42", fillcolor="#fcf1ea"] ;
18 -> 19 ;
20 [label="friedman_mse = 306838500.623\nsamples = 17\nvalue = 143921.708", fillcolor="#fcf0e7"] ;
19 -> 20 ;
21 [label="friedman_mse = 323069940.828\nsamples = 15\nvalue = 124492.308", fillcolor="#fdf3ec"] ;
19 -> 21 ;
22 [label="GrLivArea <= 0.236\nfriedman_mse = 609914266.667\nsamples = 19\nvalue = 168720.0", fillcolor="#fbebe0"] ;
18 -> 22 ;
23 [label="friedman_mse = 130060165.289\nsamples = 8\nvalue = 148572.727", fillcolor="#fcefe6"] ;
22 -> 23 ;
24 [label="friedman_mse = 516668698.061\nsamples = 11\nvalue = 180384.211", fillcolor="#fae9dd"] ;
22 -> 24 ;
25 [label="BsmtFinSF1 <= 0.145\nfriedman_mse = 1822224684.394\nsamples = 211\nvalue = 202170.445", fillcolor="#fae5d6"] ;
17 -> 25 ;
26 [label="OverallQual <= 4.5\nfriedman_mse = 1250929877.502\nsamples = 165\nvalue = 192233.562", fillcolor="#fae7d9"] ;
25 -> 26 ;
27 [label="friedman_mse = 749231194.592\nsamples = 22\nvalue = 146749.552", fillcolor="#fcefe6"] ;
26 -> 27 ;
28 [label="friedman_mse = 1019299193.977\nsamples = 143\nvalue = 197993.546", fillcolor="#fae6d8"] ;
26 -> 28 ;
29 [label="GrLivArea <= 0.261\nfriedman_mse = 2193728642.861\nsamples = 46\nvalue = 239872.147", fillcolor="#f8decc"] ;
25 -> 29 ;
30 [label="friedman_mse = 941772341.598\nsamples = 24\nvalue = 208509.091", fillcolor="#f9e4d5"] ;
29 -> 30 ;
31 [label="friedman_mse = 1572274333.342\nsamples = 22\nvalue = 269443.029", fillcolor="#f7d9c3"] ;
29 -> 31 ;
32 [label="GrLivArea <= 0.55\nfriedman_mse = 16421670892.662\nsamples = 101\nvalue = 320041.103", fillcolor="#f5d0b5"] ;
0 -> 32 [labeldistance=2.5, labelangle=-45, headlabel="False"] ;
33 [label="OverallQual <= 7.5\nfriedman_mse = 6692659934.906\nsamples = 95\nvalue = 293906.461", fillcolor="#f6d5bc"] ;
32 -> 33 ;
34 [label="BsmtFinSF1 <= 0.187\nfriedman_mse = 3660147181.15\nsamples = 73\nvalue = 268035.412", fillcolor="#f7d9c4"] ;
33 -> 34 ;
35 [label="LotArea <= 0.029\nfriedman_mse = 1978764329.587\nsamples = 51\nvalue = 243651.747", fillcolor="#f8decb"] ;
34 -> 35 ;
36 [label="friedman_mse = 514355709.877\nsamples = 9\nvalue = 191138.889", fillcolor="#fae7d9"] ;
35 -> 36 ;
37 [label="friedman_mse = 1409179309.008\nsamples = 42\nvalue = 258193.769", fillcolor="#f8dbc6"] ;
35 -> 37 ;
38 [label="FullBath <= 2.5\nfriedman_mse = 3005418896.657\nsamples = 22\nvalue = 324253.306", fillcolor="#f5cfb4"] ;
34 -> 38 ;
39 [label="friedman_mse = 1514790377.297\nsamples = 20\nvalue = 307693.839", fillcolor="#f6d2b8"] ;
38 -> 39 ;
40 [label="friedman_mse = 6316056.0\nsamples = 2\nvalue = 426922.0", fillcolor="#f1bc96"] ;
38 -> 40 ;
41 [label="TotRmsAbvGrd <= 0.708\nfriedman_mse = 6511004516.272\nsamples = 22\nvalue = 387199.03", fillcolor="#f3c4a2"] ;
33 -> 41 ;
42 [label="BsmtFinSF1 <= 0.225\nfriedman_mse = 3152401547.316\nsamples = 20\nvalue = 368975.133", fillcolor="#f3c7a7"] ;
41 -> 42 ;
43 [label="friedman_mse = 1365020186.305\nsamples = 13\nvalue = 339988.895", fillcolor="#f5ccaf"] ;
42 -> 43 ;
44 [label="friedman_mse = 2281720130.017\nsamples = 7\nvalue = 419042.273", fillcolor="#f2be99"] ;
42 -> 44 ;
45 [label="FullBath <= 2.5\nfriedman_mse = 3564887922.0\nsamples = 2\nvalue = 569438.0", fillcolor="#eca36e"] ;
41 -> 45 ;
46 [label="friedman_mse = 0.0\nsamples = 1\nvalue = 611657.0", fillcolor="#ea9b62"] ;
45 -> 46 ;
47 [label="friedman_mse = 0.0\nsamples = 1\nvalue = 485000.0", fillcolor="#efb286"] ;
45 -> 47 ;
48 [label="TotRmsAbvGrd <= 0.75\nfriedman_mse = 28814544378.698\nsamples = 6\nvalue = 625615.385", fillcolor="#ea985e"] ;
32 -> 48 ;
49 [label="LotArea <= 0.128\nfriedman_mse = 2624691358.025\nsamples = 3\nvalue = 720555.556", fillcolor="#e68743"] ;
48 -> 49 ;
50 [label="BsmtFinSF1 <= 0.315\nfriedman_mse = 20408163.265\nsamples = 2\nvalue = 747857.143", fillcolor="#e5823b"] ;
49 -> 50 ;
51 [label="friedman_mse = 0.0\nsamples = 1\nvalue = 755000.0", fillcolor="#e58139"] ;
50 -> 51 ;
52 [label="friedman_mse = 0.0\nsamples = 1\nvalue = 745000.0", fillcolor="#e5833c"] ;
50 -> 52 ;
53 [label="friedman_mse = 0.0\nsamples = 1\nvalue = 625000.0", fillcolor="#ea995e"] ;
49 -> 53 ;
54 [label="BsmtFinSF1 <= 0.625\nfriedman_mse = 21829500000.0\nsamples = 3\nvalue = 412000.0", fillcolor="#f2bf9b"] ;
48 -> 54 ;
55 [label="FullBath <= 2.5\nfriedman_mse = 882000000.0\nsamples = 2\nvalue = 496000.0", fillcolor="#efb083"] ;
54 -> 55 ;
56 [label="friedman_mse = 0.0\nsamples = 1\nvalue = 475000.0", fillcolor="#efb489"] ;
55 -> 56 ;
57 [label="friedman_mse = 0.0\nsamples = 1\nvalue = 538000.0", fillcolor="#eda877"] ;
55 -> 57 ;
58 [label="friedman_mse = 0.0\nsamples = 1\nvalue = 160000.0", fillcolor="#fbede2"] ;
54 -> 58 ;
}